<?xml version="1.0"?>
<opencv_storage>
<stage18>
  <maxWeakCount>14</maxWeakCount>
  <stageThreshold>-8.4679657220840454e-01</stageThreshold>
  <weakClassifiers>
    <_>
      <internalNodes>
        0 -1 48883 9.2867370694875717e-03</internalNodes>
      <leafValues>
        -2.1865889430046082e-01 6.4102566242218018e-01</leafValues></_>
    <_>
      <internalNodes>
        0 -1 10821 -4.5849412679672241e-02</internalNodes>
      <leafValues>
        5.4750347137451172e-01 -1.9221462309360504e-01</leafValues></_>
    <_>
      <internalNodes>
        0 -1 58102 -4.2690589907579124e-04</internalNodes>
      <leafValues>
        -5.8132052421569824e-01 2.0659574866294861e-01</leafValues></_>
    <_>
      <internalNodes>
        0 -1 74388 -1.0440724901854992e-02</internalNodes>
      <leafValues>
        5.3347396850585938e-01 -2.2296975553035736e-01</leafValues></_>
    <_>
      <internalNodes>
        0 -1 27660 -1.3407228980213404e-03</internalNodes>
      <leafValues>
        6.8474131822586060e-01 -1.5848655998706818e-01</leafValues></_>
    <_>
      <internalNodes>
        0 -1 11326 3.2833810895681381e-02</internalNodes>
      <leafValues>
        -1.7411080002784729e-01 6.8052709102630615e-01</leafValues></_>
    <_>
      <internalNodes>
        0 -1 68556 -1.9658334553241730e-02</internalNodes>
      <leafValues>
        8.0932945013046265e-01 -1.0492439568042755e-01</leafValues></_>
    <_>
      <internalNodes>
        0 -1 15381 1.2460462749004364e-02</internalNodes>
      <leafValues>
        -1.4488473534584045e-01 7.4381095170974731e-01</leafValues></_>
    <_>
      <internalNodes>
        0 -1 52048 -1.9616363570094109e-03</internalNodes>
      <leafValues>
        -5.1966691017150879e-01 2.1902120113372803e-01</leafValues></_>
    <_>
      <internalNodes>
        0 -1 57815 -3.3222113270312548e-03</internalNodes>
      <leafValues>
        5.5914831161499023e-01 -2.1035665273666382e-01</leafValues></_>
    <_>
      <internalNodes>
        0 -1 44289 -3.4206069540232420e-04</internalNodes>
      <leafValues>
        -6.0990571975708008e-01 2.3049005866050720e-01</leafValues></_>
    <_>
      <internalNodes>
        0 -1 39842 -5.0457254983484745e-03</internalNodes>
      <leafValues>
        2.8197929263114929e-01 -3.8027438521385193e-01</leafValues></_>
    <_>
      <internalNodes>
        0 -1 60833 -2.0809145644307137e-03</internalNodes>
      <leafValues>
        5.5416458845138550e-01 -1.8944072723388672e-01</leafValues></_>
    <_>
      <internalNodes>
        0 -1 52843 -1.1466997675597668e-03</internalNodes>
      <leafValues>
        4.3078115582466125e-01 -2.6442947983741760e-01</leafValues></_></weakClassifiers></stage18>
</opencv_storage>
