<?xml version="1.0"?>
<opencv_storage>
<stage12>
  <maxWeakCount>12</maxWeakCount>
  <stageThreshold>-7.8789502382278442e-01</stageThreshold>
  <weakClassifiers>
    <_>
      <internalNodes>
        0 -1 43239 1.4082227135077119e-03</internalNodes>
      <leafValues>
        -2.1965317428112030e-01 6.4682537317276001e-01</leafValues></_>
    <_>
      <internalNodes>
        0 -1 70495 -1.4752756804227829e-02</internalNodes>
      <leafValues>
        4.7410750389099121e-01 -2.7554702758789062e-01</leafValues></_>
    <_>
      <internalNodes>
        0 -1 58150 -2.8037470765411854e-03</internalNodes>
      <leafValues>
        4.8111471533775330e-01 -1.9986049830913544e-01</leafValues></_>
    <_>
      <internalNodes>
        0 -1 42906 -1.4954765792936087e-03</internalNodes>
      <leafValues>
        -6.6258543729782104e-01 1.6707357764244080e-01</leafValues></_>
    <_>
      <internalNodes>
        0 -1 73160 -3.4751966595649719e-03</internalNodes>
      <leafValues>
        5.3530561923980713e-01 -2.1649238467216492e-01</leafValues></_>
    <_>
      <internalNodes>
        0 -1 39838 -1.5430629253387451e-02</internalNodes>
      <leafValues>
        6.0352867841720581e-01 -1.3370718061923981e-01</leafValues></_>
    <_>
      <internalNodes>
        0 -1 10256 -1.5169128775596619e-02</internalNodes>
      <leafValues>
        4.8578324913978577e-01 -2.1390525996685028e-01</leafValues></_>
    <_>
      <internalNodes>
        0 -1 71762 1.4795912429690361e-03</internalNodes>
      <leafValues>
        -2.7445867657661438e-01 3.5816228389739990e-01</leafValues></_>
    <_>
      <internalNodes>
        0 -1 52376 -2.3239767178893089e-03</internalNodes>
      <leafValues>
        -8.4061062335968018e-01 1.1710172146558762e-01</leafValues></_>
    <_>
      <internalNodes>
        0 -1 47641 2.9778879252262414e-04</internalNodes>
      <leafValues>
        2.2530193626880646e-01 -4.8876157402992249e-01</leafValues></_>
    <_>
      <internalNodes>
        0 -1 57252 2.8434289619326591e-02</internalNodes>
      <leafValues>
        -1.1293438822031021e-01 8.3248281478881836e-01</leafValues></_>
    <_>
      <internalNodes>
        0 -1 53972 4.1599776595830917e-03</internalNodes>
      <leafValues>
        -4.0051218867301941e-01 3.1359535455703735e-01</leafValues></_></weakClassifiers></stage12>
</opencv_storage>
