<?xml version="1.0"?>
<opencv_storage>
<stage11>
  <maxWeakCount>13</maxWeakCount>
  <stageThreshold>-9.5512455701828003e-01</stageThreshold>
  <weakClassifiers>
    <_>
      <internalNodes>
        0 -1 30838 -1.1914330534636974e-02</internalNodes>
      <leafValues>
        6.5938866138458252e-01 -1.3265305757522583e-01</leafValues></_>
    <_>
      <internalNodes>
        0 -1 62052 5.4565749451285228e-05</internalNodes>
      <leafValues>
        3.0473881959915161e-01 -5.0746452808380127e-01</leafValues></_>
    <_>
      <internalNodes>
        0 -1 65380 1.5037817880511284e-02</internalNodes>
      <leafValues>
        -2.5143995881080627e-01 4.5780602097511292e-01</leafValues></_>
    <_>
      <internalNodes>
        0 -1 43231 -3.6545781767927110e-04</internalNodes>
      <leafValues>
        -5.6216216087341309e-01 2.1008613705635071e-01</leafValues></_>
    <_>
      <internalNodes>
        0 -1 56356 -1.3459597539622337e-04</internalNodes>
      <leafValues>
        -4.2884984612464905e-01 2.2056645154953003e-01</leafValues></_>
    <_>
      <internalNodes>
        0 -1 58109 2.1206049714237452e-03</internalNodes>
      <leafValues>
        1.3560128211975098e-01 -6.5962129831314087e-01</leafValues></_>
    <_>
      <internalNodes>
        0 -1 54430 -5.4068031022325158e-04</internalNodes>
      <leafValues>
        4.7002598643302917e-01 -2.7289551496505737e-01</leafValues></_>
    <_>
      <internalNodes>
        0 -1 68104 -3.1362700974568725e-04</internalNodes>
      <leafValues>
        3.6159867048263550e-01 -2.9844531416893005e-01</leafValues></_>
    <_>
      <internalNodes>
        0 -1 60582 4.3845586478710175e-03</internalNodes>
      <leafValues>
        -2.1396166086196899e-01 5.1708698272705078e-01</leafValues></_>
    <_>
      <internalNodes>
        0 -1 64104 2.4286746338475496e-04</internalNodes>
      <leafValues>
        -3.1119516491889954e-01 3.8956385850906372e-01</leafValues></_>
    <_>
      <internalNodes>
        0 -1 45011 1.0280048474669456e-02</internalNodes>
      <leafValues>
        -2.5087341666221619e-01 4.5216995477676392e-01</leafValues></_>
    <_>
      <internalNodes>
        0 -1 54044 1.7932627815753222e-03</internalNodes>
      <leafValues>
        1.4385657012462616e-01 -8.1791031360626221e-01</leafValues></_>
    <_>
      <internalNodes>
        0 -1 29757 1.2370577314868569e-03</internalNodes>
      <leafValues>
        -2.2285500168800354e-01 5.9046322107315063e-01</leafValues></_></weakClassifiers></stage11>
</opencv_storage>
